
\data\
ngram 1=94
ngram 2=171

\1-grams:
-1.109466	</s>
-99	<s>	-0.241147
-1.507406	a	0.0440385
-2.285557	allowing	-0.003734283
-2.285557	allows	0.03405427
-2.285557	along	-0.001466422
-2.285557	among	0.03405427
-1.285557	and	0.02458885
-2.285557	application	-0.003734283
-1.683497	are	0.02914694
-1.808436	as	0.07274106
-2.285557	been	-0.001466422
-2.285557	began	0.005409096
-1.984527	both	0.03405428
-2.285557	branched	-0.003734283
-1.683497	by	0.04152084
-2.285557	capability	-0.003734283
-2.285557	combine	-0.003734283
-1.808436	commands	0.02188837
-2.285557	compatible	-0.001466422
-2.285557	created	0.003105141
-2.285557	culture	0.02914694
-2.285557	david	0.007725337
-2.285557	deep	-0.003734283
-2.285557	describes	-0.001466422
-2.285557	development	0.01474912
-2.285557	dialect	0.01474912
-2.285557	display	0.003105141
-2.285557	each	-0.003734283
-1.683497	editor	-0.09534986
-1.171614	emacs	-0.07254101
-2.285557	email	-0.003734283
-2.285557	extension	-0.003734283
-2.285557	family	0.01474912
-2.285557	files	-0.003734283
-2.285557	first	0.02429444
-1.683497	for	-0.6589254
-2.285557	from	0.02429444
-2.285557	guy	-0.003734283
-2.285557	has	-0.003734283
-2.285557	have	-0.003734283
-2.285557	ideas	0.01474912
-1.586587	in	-0.03181462
-2.285557	inspired	0.003105141
-2.285557	into	0.003105141
-1.808436	is	0.04152084
-1.984527	it	0.00772534
-2.285557	its	0.003105141
-2.285557	l	0.02914694
-2.285557	language	0.02914694
-2.285557	main	0.005409096
-2.285557	manage	-0.003734283
-2.285557	manual	0.003105141
-2.285557	moon	0.01711586
-1.683497	most	0.003105142
-2.285557	new	0.0008133445
-1.331315	of	-0.2926551
-2.285557	oldest	-0.003734283
-2.285557	one	0.01474912
-2.285557	original	0.02429444
-2.285557	other	0.02914694
-2.285557	outlines	0.01711586
-2.285557	over	0.0008133445
-2.285557	part	-0.003734283
-2.285557	popular	0.01711586
-2.285557	programming	-0.003734283
-2.285557	programs	-0.003734283
-2.285557	project	0.02914694
-2.285557	provides	0.007725337
-2.285557	richard	0.003105141
-2.285557	set	0.01474912
-2.285557	still	0.005409096
-2.285557	text	-0.001466422
-1.984527	that	0.005409097
-1.055108	the	-0.05906823
-2.285557	their	0.02914694
-2.285557	these	0.0008133445
-1.683497	to	0.003105142
-2.285557	traditional	0.003105141
-2.285557	two	-0.003734283
-2.285557	unix	-0.003734283
-1.984527	use	0.062083
-2.285557	used	0.02429444
-2.285557	user	0.003105141
-2.285557	users	0.01711586
-2.285557	using	0.007725337
-2.285557	version	0.01474912
-1.808436	was	0.003105141
-2.285557	which	0.0008133445
-2.285557	widely	-0.003734283
-1.984527	with	-0.001466421
-2.285557	work	0.02914694
-2.285557	write	-0.003734283
-1.984527	written	0.01474912

\2-grams:
-3.039414	<s> as
-1.087245	<s> both
-3.039414	<s> development
-0.5740313	<s> emacs
-3.039414	<s> have
-3.039414	<s> is
-3.039414	<s> it
-3.039414	<s> moon
-0.69897	<s> the
-2.641474	a </s>
-2.641474	a deep
-2.641474	a dialect
-2.641474	a family
-2.641474	a set
-2.641474	a that
-1.863323	allowing users
-1.863323	allows the
-1.863323	along with
-1.863323	among the
-0.9111534	and </s>
-2.863323	and allows
-2.863323	and are
-2.863323	and as
-2.863323	and guy
-2.863323	and its
-2.863323	and most
-2.863323	and to
-2.863323	and use
-1.863323	application programs
-2.465383	are a
-2.465383	are among
-2.465383	are by
-2.465383	are for
-2.340444	as a
-2.340444	as of
-2.340444	as the
-1.863323	been written
-1.863323	began in
-2.164353	both are
-2.164353	both emacs
-1.863323	branched from
-2.465383	by david
-2.465383	by richard
-2.465383	by the
-2.465383	by their
-1.863323	capability allowing
-1.863323	combine these
-2.340444	commands and
-2.340444	commands into
-2.340444	commands using
-1.863323	compatible with
-1.863323	created by
-1.863323	culture </s>
-1.863323	david a
-1.863323	deep extension
-1.863323	describes it
-1.863323	development of
-1.863323	dialect of
-1.863323	display editor
-1.863323	each other
-0.5132133	editor </s>
-2.465383	editor for
-2.465383	editor of
-2.977266	emacs </s>
-0.6368221	emacs and
-2.977266	emacs began
-2.977266	emacs describes
-2.977266	emacs has
-2.977266	emacs in
-1.025097	emacs is
-2.977266	emacs provides
-2.977266	emacs was
-2.977266	emacs which
-1.863323	email files
-1.863323	extension capability
-1.863323	family of
-1.863323	files outlines
-1.863323	first emacs
-0.09691001	for the
-1.863323	from emacs
-1.863323	guy l
-1.863323	has over
-1.863323	have been
-1.863323	ideas of
-2.562293	in </s>
-2.562293	in by
-0.6101233	in the
-2.562293	in use
-1.863323	inspired by
-1.863323	into to
-2.340444	is a
-2.340444	is along
-2.340444	is emacs
-2.164353	it as
-2.164353	it was
-1.863323	its are
-1.863323	l </s>
-1.863323	language </s>
-1.863323	main in
-1.863323	manage email
-1.863323	manual for
-1.863323	moon and
-2.465383	most part
-2.465383	most popular
-2.465383	most version
-2.465383	most widely
-1.863323	new commands
-2.817565	of editor
-0.8653958	of emacs
-2.817565	of text
-0.3521825	of the
-2.817565	of unix
-1.863323	oldest application
-1.863323	one of
-1.863323	original emacs
-1.863323	other </s>
-1.863323	outlines and
-1.863323	over commands
-1.863323	part compatible
-1.863323	popular and
-1.863323	programming language
-1.863323	programs still
-1.863323	project </s>
-1.863323	provides a
-1.863323	richard for
-1.863323	set of
-1.863323	still in
-1.863323	text that
-2.164353	that are
-2.164353	that branched
-1.141602	the and
-3.093772	the display
-3.093772	the editor
-3.093772	the first
-3.093772	the ideas
-3.093772	the manual
-0.7533277	the most
-3.093772	the oldest
-3.093772	the original
-3.093772	the programming
-3.093772	the project
-3.093772	the traditional
-3.093772	the two
-3.093772	the user
-1.863323	their </s>
-1.863323	these commands
-2.465383	to combine
-2.465383	to manage
-2.465383	to work
-2.465383	to write
-1.863323	traditional editor
-1.863323	two main
-1.863323	unix culture
-2.164353	use </s>
-2.164353	use emacs
-1.863323	used emacs
-1.863323	user to
-1.863323	users and
-1.863323	using a
-1.863323	version of
-2.340444	was created
-2.340444	was inspired
-2.340444	was written
-1.863323	which was
-1.863323	widely used
-2.164353	with each
-2.164353	with one
-1.863323	work </s>
-1.863323	write new
-2.164353	written in
-2.164353	written to

\end\
