
\data\
ngram 1=129
ngram 2=217

\1-grams:
-1.172457	</s>
-99	<s>	-1.181595
-1.598426	a	-0.802975
-2.376577	actively	-0.2955209
-2.376577	allowing	-0.2992014
-2.376577	allows	-0.2688453
-2.376577	along	-0.297365
-2.376577	among	-0.2688453
-1.376577	and	-1.009208
-2.376577	application	-0.2992014
-1.774517	are	-0.6765015
-1.899456	as	-0.5393502
-2.376577	automate	-0.2992014
-2.376577	been	-0.297365
-2.376577	began	-0.2918089
-2.075547	both	-0.4603797
-2.376577	branched	-0.2992014
-2.376577	builtin	-0.2955209
-1.774517	by	-0.6608495
-2.376577	capability	-0.2992014
-2.376577	characterized	-0.2936689
-2.376577	combine	-0.2992014
-1.899456	commands	-0.5795914
-2.376577	compatible	-0.297365
-2.376577	contenders	-0.2918089
-2.376577	continues	-0.2992014
-2.376577	created	-0.2936689
-2.376577	culture	-0.270806
-2.376577	customizable	-0.2992014
-2.376577	david	-0.289941
-2.376577	deep	-0.2992014
-2.376577	derivatives	-0.2936689
-2.376577	describes	-0.297365
-2.376577	developers	-0.2936689
-2.376577	development	-0.2842885
-2.376577	dialect	-0.2842885
-2.376577	display	-0.2936689
-2.376577	each	-0.2992014
-1.774517	editor	-0.6277235
-2.075547	editors	-0.4716121
-1.297396	emacs	-0.7835172
-2.376577	email	-0.2992014
-2.376577	extensibility	-0.270806
-2.376577	extensible	-0.2992014
-2.376577	extension	-0.2992014
-2.376577	extensions	-0.2992014
-2.376577	family	-0.2842885
-2.376577	feeds	-0.270806
-2.376577	files	-0.2992014
-2.376577	first	-0.2785615
-1.774517	for	-0.6667854
-2.376577	from	-0.2918089
-1.677607	gnu	-0.7537568
-2.376577	guy	-0.2992014
-2.376577	has	-0.2992014
-2.376577	have	-0.2992014
-2.376577	ideas	-0.2842885
-2.376577	imks	-0.2823879
-1.677607	in	-0.6830425
-2.376577	inspired	-0.2936689
-2.376577	into	-0.297365
-1.899456	is	-0.5795914
-2.075547	it	-0.4660323
-2.376577	its	-0.2992014
-2.376577	jr	-0.270806
-2.376577	l	-0.270806
-2.376577	language	-0.270806
-1.899456	lisp	-0.5795914
-2.075547	macros	-0.4622721
-2.376577	main	-0.2992014
-2.376577	manage	-0.2992014
-2.376577	manual	-0.2936689
-2.376577	mids	-0.2823879
-2.376577	moon	-0.2823879
-1.774517	most	-0.6916088
-2.376577	new	-0.2955209
-1.422334	of	-0.8952646
-2.376577	oldest	-0.2992014
-2.376577	one	-0.2842885
-2.376577	original	-0.2785615
-2.376577	other	-0.270806
-2.376577	outlines	-0.2823879
-2.376577	over	-0.2992014
-2.376577	part	-0.2992014
-2.376577	popular	-0.2823879
-2.376577	ported	-0.2992014
-2.376577	programming	-0.2992014
-2.376577	programs	-0.2992014
-2.376577	project	-0.270806
-2.376577	provides	-0.289941
-2.376577	realtime	-0.2992014
-2.376577	richard	-0.2992014
-2.376577	rss	-0.2992014
-2.376577	selfdocumenting	-0.2992014
-2.376577	set	-0.2842885
-2.376577	stallman	-0.2936689
-2.376577	steele	-0.2992014
-2.376577	still	-0.2918089
-2.376577	tecmac	-0.2823879
-2.376577	teco	-0.2936689
-2.376577	tecomacro	-0.297365
-2.376577	text	-0.297365
-2.075547	that	-0.4679002
-1.146128	the	-1.209109
-2.376577	their	-0.2992014
-2.376577	these	-0.2955209
-2.376577	tmacs	-0.270806
-1.774517	to	-0.6916088
-2.376577	traditional	-0.2936689
-2.376577	two	-0.2992014
-2.376577	unix	-0.2992014
-2.075547	use	-0.4227636
-2.376577	used	-0.297365
-2.376577	user	-0.2936689
-2.376577	users	-0.2823879
-2.376577	using	-0.289941
-2.075547	variant	-0.4641563
-2.376577	version	-0.2842885
-2.376577	vi	-0.2992014
-2.376577	vim	-0.2992014
-2.376577	wars	-0.2842885
-1.899456	was	-0.5946988
-2.376577	which	-0.2955209
-2.376577	widely	-0.2992014
-2.075547	with	-0.4734563
-2.376577	work	-0.270806
-2.376577	write	-0.2992014
-2.075547	written	-0.4603797
-2.075547	xemacs	-0.4679002

\2-grams:
-1.20412	<s> as
-1.150031	<s> both
-1.20412	<s> development
-0.60206	<s> emacs
-1.20412	<s> extensions
-1.20412	<s> it
-1.20412	<s> moon
-1.20412	<s> steele
-0.7269987	<s> the
-1.20412	<s> xemacs
-0.845098	a </s>
-0.845098	a deep
-0.845098	a dialect
-0.845098	a family
-0.845098	a set
-0.845098	a variant
-0.30103	actively as
-0.30103	allowing users
-0.30103	allows the
-0.30103	along with
-0.30103	among the
-1.041393	and allows
-1.041393	and are
-1.041393	and continues
-1.041393	and developers
-1.041393	and guy
-1.041393	and its
-1.041393	and most
-1.041393	and rss
-1.041393	and tmacs
-1.041393	and xemacs
-0.30103	application programs
-0.69897	are a
-0.69897	are among
-0.69897	are characterized
-0.69897	are for
-0.60206	as a
-0.60206	as of
-0.60206	as the
-0.30103	automate work
-0.30103	been written
-0.30103	began in
-0.4771213	both are
-0.4771213	both gnu
-0.30103	branched from
-0.30103	builtin commands
-0.69897	by david
-0.69897	by richard
-0.69897	by the
-0.69897	by their
-0.30103	capability allowing
-0.30103	characterized by
-0.30103	combine these
-0.60206	commands and
-0.60206	commands into
-0.60206	commands using
-0.30103	compatible with
-0.30103	contenders in
-0.30103	continues actively
-0.30103	created by
-0.30103	culture </s>
-0.30103	customizable selfdocumenting
-0.30103	david a
-0.30103	deep extension
-0.30103	derivatives are
-0.30103	describes it
-0.30103	developers to
-0.30103	development of
-0.30103	dialect of
-0.30103	display editor
-0.30103	each other
-0.5479713	editor </s>
-0.60206	editor macros
-0.60206	editor wars
-0.4771213	editors tecmac
-0.4771213	editors that
-1.079181	emacs and
-1.079181	emacs began
-1.079181	emacs describes
-1.079181	emacs has
-1.079181	emacs imks
-1.079181	emacs in
-1.025093	emacs is
-1.025093	emacs lisp
-1.079181	emacs was
-1.079181	emacs which
-0.30103	email files
-0.30103	extensibility </s>
-0.30103	extensible customizable
-0.30103	extension capability
-0.30103	extensions have
-0.30103	family of
-0.30103	feeds </s>
-0.30103	files outlines
-0.30103	first emacs
-0.09691001	for the
-0.30103	from gnu
-0.1760913	gnu emacs
-0.7781513	gnu project
-0.30103	guy l
-0.30103	has over
-0.30103	have been
-0.30103	ideas of
-0.30103	imks and
-0.69897	in </s>
-0.69897	in by
-0.6448814	in the
-0.69897	in use
-0.30103	inspired by
-0.30103	into macros
-0.60206	is a
-0.60206	is along
-0.60206	is gnu
-0.4771213	it as
-0.4771213	it was
-0.30103	its derivatives
-0.30103	jr </s>
-0.30103	l </s>
-0.30103	language </s>
-0.60206	lisp and
-0.60206	lisp programming
-0.60206	lisp provides
-0.4771213	macros for
-0.4771213	macros to
-0.30103	main contenders
-0.30103	manage email
-0.30103	manual for
-0.30103	mids and
-0.30103	moon and
-0.69897	most part
-0.69897	most popular
-0.69897	most ported
-0.69897	most widely
-0.30103	new commands
-1	of </s>
-1	of editor
-1	of emacs
-1	of text
-0.39794	of the
-1	of unix
-0.30103	oldest application
-0.30103	one of
-0.30103	original emacs
-0.30103	other </s>
-0.30103	outlines and
-0.30103	over builtin
-0.30103	part compatible
-0.30103	popular and
-0.30103	ported version
-0.30103	programming language
-0.30103	programs still
-0.30103	project </s>
-0.30103	provides a
-0.30103	realtime display
-0.30103	richard stallman
-0.30103	rss feeds
-0.30103	selfdocumenting realtime
-0.30103	set of
-0.30103	stallman for
-0.30103	steele jr
-0.30103	still in
-0.30103	tecmac and
-0.30103	teco editor
-0.30103	tecomacro editors
-0.30103	text editors
-0.4771213	that are
-0.4771213	that branched
-1.255273	the extensible
-1.255273	the first
-1.255273	the gnu
-1.255273	the ideas
-1.255273	the lisp
-1.255273	the manual
-1.255273	the mids
-0.7781513	the most
-1.255273	the oldest
-1.255273	the original
-1.255273	the teco
-1.255273	the tecomacro
-1.255273	the traditional
-1.255273	the two
-1.255273	the user
-0.30103	their extensibility
-0.30103	these commands
-0.30103	tmacs </s>
-0.69897	to automate
-0.69897	to combine
-0.69897	to manage
-0.69897	to write
-0.30103	traditional editor
-0.30103	two main
-0.30103	unix culture
-0.4771213	use </s>
-0.4771213	use emacs
-0.30103	used variant
-0.30103	user to
-0.30103	users and
-0.30103	using a
-0.4771213	variant gnu
-0.4771213	variant that
-0.30103	version of
-0.30103	vi vim
-0.30103	vim one
-0.30103	wars of
-0.60206	was created
-0.60206	was inspired
-0.60206	was written
-0.30103	which was
-0.30103	widely used
-0.4771213	with each
-0.4771213	with vi
-0.30103	work </s>
-0.30103	write new
-0.4771213	written in
-0.4771213	written to
-0.4771213	xemacs is
-0.4771213	xemacs use

\end\
